digraph Tree {
node [shape=box, style="filled, rounded", color="black", fontname=helvetica] ;
edge [fontname=helvetica] ;
0 [label="age <= 45.5\ngini = 0.47\nsamples = 133\nvalue = [141, 84]", fillcolor="#e5813967"] ;
1 [label="blood.disorder <= 4.5\ngini = 0.31\nsamples = 28\nvalue = [38, 9]", fillcolor="#e58139c3"] ;
0 -> 1 [labeldistance=2.5, labelangle=45, headlabel="True"] ;
2 [label="years.as.smoker <= 27.0\ngini = 0.11\nsamples = 19\nvalue = [32, 2]", fillcolor="#e58139ef"] ;
1 -> 2 ;
3 [label="age <= 43.5\ngini = 0.06\nsamples = 16\nvalue = [30, 1]", fillcolor="#e58139f6"] ;
2 -> 3 ;
4 [label="gini = 0.0\nsamples = 9\nvalue = [20, 0]", fillcolor="#e58139ff"] ;
3 -> 4 ;
5 [label="resting.blood.pressure <= 113.5\ngini = 0.17\nsamples = 7\nvalue = [10, 1]", fillcolor="#e58139e6"] ;
3 -> 5 ;
6 [label="gini = 0.0\nsamples = 1\nvalue = [0, 1]", fillcolor="#399de5ff"] ;
5 -> 6 ;
7 [label="gini = 0.0\nsamples = 6\nvalue = [10, 0]", fillcolor="#e58139ff"] ;
5 -> 7 ;
8 [label="exercise.induced.angina <= 0.5\ngini = 0.44\nsamples = 3\nvalue = [2, 1]", fillcolor="#e581397f"] ;
2 -> 8 ;
9 [label="resting.blood.pressure <= 130.0\ngini = 0.5\nsamples = 2\nvalue = [1, 1]", fillcolor="#e5813900"] ;
8 -> 9 ;
10 [label="gini = 0.0\nsamples = 1\nvalue = [0, 1]", fillcolor="#399de5ff"] ;
9 -> 10 ;
11 [label="gini = 0.0\nsamples = 1\nvalue = [1, 0]", fillcolor="#e58139ff"] ;
9 -> 11 ;
12 [label="gini = 0.0\nsamples = 1\nvalue = [1, 0]", fillcolor="#e58139ff"] ;
8 -> 12 ;
13 [label="max.heart.rate.exercise <= 154.0\ngini = 0.5\nsamples = 9\nvalue = [6, 7]", fillcolor="#399de524"] ;
1 -> 13 ;
14 [label="resting.ecg.results <= 1.0\ngini = 0.35\nsamples = 7\nvalue = [2, 7]", fillcolor="#399de5b6"] ;
13 -> 14 ;
15 [label="age <= 38.0\ngini = 0.5\nsamples = 3\nvalue = [2, 2]", fillcolor="#e5813900"] ;
14 -> 15 ;
16 [label="gini = 0.0\nsamples = 1\nvalue = [0, 1]", fillcolor="#399de5ff"] ;
15 -> 16 ;
17 [label="cholesterol <= 259.0\ngini = 0.44\nsamples = 2\nvalue = [2, 1]", fillcolor="#e581397f"] ;
15 -> 17 ;
18 [label="gini = 0.0\nsamples = 1\nvalue = [2, 0]", fillcolor="#e58139ff"] ;
17 -> 18 ;
19 [label="gini = 0.0\nsamples = 1\nvalue = [0, 1]", fillcolor="#399de5ff"] ;
17 -> 19 ;
20 [label="gini = 0.0\nsamples = 4\nvalue = [0, 5]", fillcolor="#399de5ff"] ;
14 -> 20 ;
21 [label="gini = 0.0\nsamples = 2\nvalue = [4, 0]", fillcolor="#e58139ff"] ;
13 -> 21 ;
22 [label="sex <= 0.5\ngini = 0.49\nsamples = 105\nvalue = [103, 75]", fillcolor="#e5813945"] ;
0 -> 22 [labeldistance=2.5, labelangle=-45, headlabel="False"] ;
23 [label="max.heart.rate.exercise <= 150.5\ngini = 0.21\nsamples = 35\nvalue = [51, 7]", fillcolor="#e58139dc"] ;
22 -> 23 ;
24 [label="resting.blood.pressure <= 162.5\ngini = 0.36\nsamples = 16\nvalue = [19, 6]", fillcolor="#e58139ae"] ;
23 -> 24 ;
25 [label="exercise.induced.angina <= 0.5\ngini = 0.24\nsamples = 15\nvalue = [19, 3]", fillcolor="#e58139d7"] ;
24 -> 25 ;
26 [label="resting.ecg.results <= 1.5\ngini = 0.09\nsamples = 13\nvalue = [19, 1]", fillcolor="#e58139f2"] ;
25 -> 26 ;
27 [label="gini = 0.0\nsamples = 6\nvalue = [12, 0]", fillcolor="#e58139ff"] ;
26 -> 27 ;
28 [label="blood.disorder <= 5.0\ngini = 0.22\nsamples = 7\nvalue = [7, 1]", fillcolor="#e58139db"] ;
26 -> 28 ;
29 [label="gini = 0.0\nsamples = 6\nvalue = [7, 0]", fillcolor="#e58139ff"] ;
28 -> 29 ;
30 [label="gini = 0.0\nsamples = 1\nvalue = [0, 1]", fillcolor="#399de5ff"] ;
28 -> 30 ;
31 [label="gini = 0.0\nsamples = 2\nvalue = [0, 2]", fillcolor="#399de5ff"] ;
25 -> 31 ;
32 [label="gini = 0.0\nsamples = 1\nvalue = [0, 3]", fillcolor="#399de5ff"] ;
24 -> 32 ;
33 [label="cholesterol <= 304.0\ngini = 0.06\nsamples = 19\nvalue = [32, 1]", fillcolor="#e58139f7"] ;
23 -> 33 ;
34 [label="gini = 0.0\nsamples = 11\nvalue = [21, 0]", fillcolor="#e58139ff"] ;
33 -> 34 ;
35 [label="chest.pain.type <= 3.5\ngini = 0.15\nsamples = 8\nvalue = [11, 1]", fillcolor="#e58139e8"] ;
33 -> 35 ;
36 [label="gini = 0.0\nsamples = 5\nvalue = [8, 0]", fillcolor="#e58139ff"] ;
35 -> 36 ;
37 [label="max.heart.rate.exercise <= 162.0\ngini = 0.38\nsamples = 3\nvalue = [3, 1]", fillcolor="#e58139aa"] ;
35 -> 37 ;
38 [label="age <= 61.0\ngini = 0.5\nsamples = 2\nvalue = [1, 1]", fillcolor="#e5813900"] ;
37 -> 38 ;
39 [label="gini = 0.0\nsamples = 1\nvalue = [0, 1]", fillcolor="#399de5ff"] ;
38 -> 39 ;
40 [label="gini = 0.0\nsamples = 1\nvalue = [1, 0]", fillcolor="#e58139ff"] ;
38 -> 40 ;
41 [label="gini = 0.0\nsamples = 1\nvalue = [2, 0]", fillcolor="#e58139ff"] ;
37 -> 41 ;
42 [label="chest.pain.type <= 3.5\ngini = 0.49\nsamples = 70\nvalue = [52, 68]", fillcolor="#399de53c"] ;
22 -> 42 ;
43 [label="chest.pain.type <= 2.5\ngini = 0.44\nsamples = 38\nvalue = [45, 22]", fillcolor="#e5813982"] ;
42 -> 43 ;
44 [label="age <= 49.5\ngini = 0.29\nsamples = 18\nvalue = [28, 6]", fillcolor="#e58139c8"] ;
43 -> 44 ;
45 [label="years.as.smoker <= 7.5\ngini = 0.44\nsamples = 2\nvalue = [1, 2]", fillcolor="#399de57f"] ;
44 -> 45 ;
46 [label="gini = 0.0\nsamples = 1\nvalue = [0, 2]", fillcolor="#399de5ff"] ;
45 -> 46 ;
47 [label="gini = 0.0\nsamples = 1\nvalue = [1, 0]", fillcolor="#e58139ff"] ;
45 -> 47 ;
48 [label="age <= 56.5\ngini = 0.22\nsamples = 16\nvalue = [27, 4]", fillcolor="#e58139d9"] ;
44 -> 48 ;
49 [label="gini = 0.0\nsamples = 6\nvalue = [13, 0]", fillcolor="#e58139ff"] ;
48 -> 49 ;
50 [label="fasting.blood.sugar <= 0.5\ngini = 0.35\nsamples = 10\nvalue = [14, 4]", fillcolor="#e58139b6"] ;
48 -> 50 ;
51 [label="cholesterol <= 226.5\ngini = 0.43\nsamples = 7\nvalue = [9, 4]", fillcolor="#e581398e"] ;
50 -> 51 ;
52 [label="gini = 0.0\nsamples = 2\nvalue = [5, 0]", fillcolor="#e58139ff"] ;
51 -> 52 ;
53 [label="cholesterol <= 239.5\ngini = 0.5\nsamples = 5\nvalue = [4, 4]", fillcolor="#e5813900"] ;
51 -> 53 ;
54 [label="gini = 0.0\nsamples = 2\nvalue = [0, 3]", fillcolor="#399de5ff"] ;
53 -> 54 ;
55 [label="chest.pain.type <= 1.5\ngini = 0.32\nsamples = 3\nvalue = [4, 1]", fillcolor="#e58139bf"] ;
53 -> 55 ;
56 [label="max.heart.rate.exercise <= 135.0\ngini = 0.44\nsamples = 2\nvalue = [2, 1]", fillcolor="#e581397f"] ;
55 -> 56 ;
57 [label="gini = 0.0\nsamples = 1\nvalue = [0, 1]", fillcolor="#399de5ff"] ;
56 -> 57 ;
58 [label="gini = 0.0\nsamples = 1\nvalue = [2, 0]", fillcolor="#e58139ff"] ;
56 -> 58 ;
59 [label="gini = 0.0\nsamples = 1\nvalue = [2, 0]", fillcolor="#e58139ff"] ;
55 -> 59 ;
60 [label="gini = 0.0\nsamples = 3\nvalue = [5, 0]", fillcolor="#e58139ff"] ;
50 -> 60 ;
61 [label="resting.blood.pressure <= 160.0\ngini = 0.5\nsamples = 20\nvalue = [17, 16]", fillcolor="#e581390f"] ;
43 -> 61 ;
62 [label="blood.disorder <= 4.5\ngini = 0.49\nsamples = 19\nvalue = [17, 12]", fillcolor="#e581394b"] ;
61 -> 62 ;
63 [label="years.as.smoker <= 26.5\ngini = 0.43\nsamples = 9\nvalue = [9, 4]", fillcolor="#e581398e"] ;
62 -> 63 ;
64 [label="cholesterol <= 244.0\ngini = 0.5\nsamples = 6\nvalue = [4, 4]", fillcolor="#e5813900"] ;
63 -> 64 ;
65 [label="exercise.induced.angina <= 0.5\ngini = 0.38\nsamples = 3\nvalue = [1, 3]", fillcolor="#399de5aa"] ;
64 -> 65 ;
66 [label="gini = 0.0\nsamples = 2\nvalue = [0, 3]", fillcolor="#399de5ff"] ;
65 -> 66 ;
67 [label="gini = 0.0\nsamples = 1\nvalue = [1, 0]", fillcolor="#e58139ff"] ;
65 -> 67 ;
68 [label="age <= 57.5\ngini = 0.38\nsamples = 3\nvalue = [3, 1]", fillcolor="#e58139aa"] ;
64 -> 68 ;
69 [label="gini = 0.0\nsamples = 2\nvalue = [3, 0]", fillcolor="#e58139ff"] ;
68 -> 69 ;
70 [label="gini = 0.0\nsamples = 1\nvalue = [0, 1]", fillcolor="#399de5ff"] ;
68 -> 70 ;
71 [label="gini = 0.0\nsamples = 3\nvalue = [5, 0]", fillcolor="#e58139ff"] ;
63 -> 71 ;
72 [label="num.cigs.per.day <= 0.5\ngini = 0.5\nsamples = 10\nvalue = [8, 8]", fillcolor="#e5813900"] ;
62 -> 72 ;
73 [label="gini = 0.0\nsamples = 2\nvalue = [3, 0]", fillcolor="#e58139ff"] ;
72 -> 73 ;
74 [label="num.cigs.per.day <= 35.0\ngini = 0.47\nsamples = 8\nvalue = [5, 8]", fillcolor="#399de560"] ;
72 -> 74 ;
75 [label="years.as.smoker <= 34.5\ngini = 0.4\nsamples = 7\nvalue = [3, 8]", fillcolor="#399de59f"] ;
74 -> 75 ;
76 [label="years.as.smoker <= 24.47\ngini = 0.2\nsamples = 6\nvalue = [1, 8]", fillcolor="#399de5df"] ;
75 -> 76 ;
77 [label="gini = 0.0\nsamples = 1\nvalue = [1, 0]", fillcolor="#e58139ff"] ;
76 -> 77 ;
78 [label="gini = 0.0\nsamples = 5\nvalue = [0, 8]", fillcolor="#399de5ff"] ;
76 -> 78 ;
79 [label="gini = 0.0\nsamples = 1\nvalue = [2, 0]", fillcolor="#e58139ff"] ;
75 -> 79 ;
80 [label="gini = 0.0\nsamples = 1\nvalue = [2, 0]", fillcolor="#e58139ff"] ;
74 -> 80 ;
81 [label="gini = 0.0\nsamples = 1\nvalue = [0, 4]", fillcolor="#399de5ff"] ;
61 -> 81 ;
82 [label="age <= 53.5\ngini = 0.23\nsamples = 32\nvalue = [7, 46]", fillcolor="#399de5d8"] ;
42 -> 82 ;
83 [label="resting.blood.pressure <= 110.0\ngini = 0.38\nsamples = 9\nvalue = [5, 15]", fillcolor="#399de5aa"] ;
82 -> 83 ;
84 [label="gini = 0.0\nsamples = 1\nvalue = [2, 0]", fillcolor="#e58139ff"] ;
83 -> 84 ;
85 [label="cholesterol <= 228.0\ngini = 0.28\nsamples = 8\nvalue = [3, 15]", fillcolor="#399de5cc"] ;
83 -> 85 ;
86 [label="max.heart.rate.exercise <= 133.5\ngini = 0.5\nsamples = 3\nvalue = [3, 3]", fillcolor="#e5813900"] ;
85 -> 86 ;
87 [label="gini = 0.0\nsamples = 1\nvalue = [3, 0]", fillcolor="#e58139ff"] ;
86 -> 87 ;
88 [label="gini = 0.0\nsamples = 2\nvalue = [0, 3]", fillcolor="#399de5ff"] ;
86 -> 88 ;
89 [label="gini = 0.0\nsamples = 5\nvalue = [0, 12]", fillcolor="#399de5ff"] ;
85 -> 89 ;
90 [label="cholesterol <= 202.0\ngini = 0.11\nsamples = 23\nvalue = [2, 31]", fillcolor="#399de5ef"] ;
82 -> 90 ;
91 [label="exercise.induced.angina <= 0.5\ngini = 0.38\nsamples = 4\nvalue = [2, 6]", fillcolor="#399de5aa"] ;
90 -> 91 ;
92 [label="gini = 0.0\nsamples = 2\nvalue = [2, 0]", fillcolor="#e58139ff"] ;
91 -> 92 ;
93 [label="gini = 0.0\nsamples = 2\nvalue = [0, 6]", fillcolor="#399de5ff"] ;
91 -> 93 ;
94 [label="gini = 0.0\nsamples = 19\nvalue = [0, 25]", fillcolor="#399de5ff"] ;
90 -> 94 ;
}